function [y1] = tcarbn_nngv2ldeo_bro20(x1)
%TCO2_NNGV2LDEO_8 neural network simulation function.
%
% Generated by Neural Network Toolbox function genFunction, 28-Jan-2020 12:16:06.
% 
% [y1] = TCO2_NNGv2LDEO_8(x1) takes these arguments:
%   x = 11xQ matrix, input #1
% and returns:
%   y = 1xQ matrix, output #1
% where Q is the number of samples.
%{

Example of use of the neural networks:

CT_values=Neural_network_object(data_inputs); %This code line must be written in the command window.

AT_values: row vector with computed values of CT by the neural network used. The size is equal to that of datainputs

data_inputs: 2D matrix. Size must be 11 rows by n columns. Where n is the number of samples where AT will be computed. Each row is a variable and each column is a sample. The order of the variables has to be the following:

1: latitude;
2: clon; 
3: slon; 
4: depth; 
5: potential temperature; 
6: salinity; 
7: phosphate; 
8: nitrate; 
9: silicate; 
10: oxygen;
11: year;

The units must be: latitude and longitude in [-90º:90º] and [-180º:180º] format; depth in m; potential temperature in ºC; and nutrients and oxygen in umol/kg.
%}
%#ok<*RPMT0>

% ===== NEURAL NETWORK CONSTANTS =====

% Input 1
x1_step1.xoffset = [-78.04;-1;-1;0;-2.174;0.157;-0.0408;-1.0509;-0.404;0;1972];
x1_step1.gain = [0.0119019281123542;1;1.00000000007615;0.000280151281692114;0.0586751158833539;0.0494364247577615;0.569492297616675;0.0417964970355835;0.00825239113033001;0.00280544255856361;0.0444444444444444];
x1_step1.ymin = -1;

% Layer 1
b1 = [-2.1252527261525759883;3.1092966685665963666;1.3060207886074797212;-2.7165019535529411066;0.60759363348901829216;-1.5627341971395491971;4.9937177429833328191;0.67977698173057787834;-1.3574652359150749525;1.9785844944637975829;-2.144181103584394954;-1.6905751818394445518;-2.4703035662631571689;-0.74686530615600077443;-2.9057494894511122219;-1.0314343299063326587;1.4723111612217454347;-1.9429014918191787054;4.3093072238893883608;-2.4833153935213125862;1.5854087061222952304;-2.1655829057756084133;-5.11428977417632602;0.19355117372752939087;1.3188710325866241924;-1.1787465516154376211;-2.6881180812494251953;1.9980583867319814395;0.53621349218319724894;-2.1867673394869560077;-0.44865849774609894984;-0.43545650256637907782;1.5887882933752177639;-0.11034169030692531077;2.1929844557820969975;-0.6444412239795707098;0.39085041736286457725;0.59231786211031756118;0.51916266717770997996;-1.0913690119225041286;0.45344237256022146276;1.1011802437616118322;0.04084023850340130074;1.4123393524515885922;1.6914613713597890232;1.3815207138144356414;-0.090091979602473379329;0.66822705540301774452;-0.086217139218544333601;-0.18480735938623613079;-0.30259876863583978768;1.4836396821710544636;-2.1630553805497259034;1.1304185989888897446;-2.2080542550549315806;-0.38127496794433651806;0.2422252711297739336;0.47840469017275977226;-1.0757746782491834914;1.0477049909032847275;0.22192347343409427052;-1.2450928319744090089;-1.9998022256311851486;0.45682868396884396267;0.25520424550341586079;-0.33026156051455357598;0.20746521058048378316;-0.82246038003430610441;0.84582817967930135072;-1.1297281399628604781;-2.2443063623026997533;0.39051944619006895287;0.037595178653926350498;-0.81033549147959205161;-2.1429607266347350247;2.9517794865057846998;-0.65489706028257566039;-2.9919010841150877056;-0.78301343942746426396;-0.14187452535593481073;2.1409448020419459269;1.1018999716007420453;-0.093699289219521433858;-0.4872318495871110211;0.4665310996220059514;0.93890660047109386621;-1.5154885985294443973;-1.6985772619368091352;1.5643686890598380579;1.1225935988497033335;-2.2057531891571473537;-2.2896746133604084505;-1.2432460035814743016;-0.8840982136240385092;-1.4152039022212530295;0.89364277750803733369;1.7891189440135049082;0.63478859886709149141;1.5747773572036181111;0.011798840726792082789;-2.1805751244519990806;0.69772614621349871022;1.5055607595051958558;3.1900387491893855696;-0.83680189892481726677;1.1508105133099066908;-0.9695809343993061491;1.2350807724830079604;1.4267229020289278196;-1.7730556945120721224;-0.43728120747973137084;2.3355754590151978078;-3.0391460823394518265;-0.97412440986327286652;1.8439778500699970376;1.8438857862738136095;2.3918454629927543564;-4.153175583189827158;-3.9217073721257129648;2.6252726368119438938;2.8594387471522013655;2.2976268594624382757;2.4042322630704413555;0.76283066450753156396;-1.9791448729149676566;-2.7861364963154189311;3.2840799012975083748;-0.64366633497280789644];
IW1_1 = [0.14501572113647051565 -0.48197021035985559978 -0.17847521924574144547 -0.35029343600752188559 -4.3187365097422150129 -3.0696659494545657232 -1.6640361848503442133 0.57343692487994191165 0.64042365890577834797 0.98939521761146054235 -0.31786363459948302479;-0.5053307223269531967 0.96884822450370966518 -0.32981441870914668391 -0.34016176624523425387 -0.2339830766530417161 -1.1995123225780632836 -1.0245367161240239717 -0.43334754147364978882 -1.2311764025779265985 1.1165114902488111337 0.6552008911812118308;0.40001127915596651485 -0.22684230066214380872 0.07946406747796030956 -0.10220371064400689265 0.38612786235627982734 -0.47701494205271288696 0.53721289512606085204 -0.1462404328191690972 -0.15482641337880895249 0.23262987324505307596 0.1983923059952604484;0.3338470145912216247 -0.1578821702064428234 -1.0070702106915299101 0.34849243335145241307 -3.3138162239133830411 -2.0588969123832403518 -1.3762207510741277794 -0.040398305715789242787 0.63220869400704526875 0.74630712404316312814 -0.12526271905979824428;-0.80048294843440503943 -0.88776893974812487453 -1.0642563360135928185 -0.32812797287478417951 -0.82791145609915584025 4.0926130427206297568 0.64205778472824504011 -0.089715558356096597459 2.1925678652920130851 0.21599215496147836091 -0.013100553413239285697;0.6377300856100773796 0.1440888088751755558 -0.25082291984468796375 -0.6909574260954881586 2.1224611867557157119 2.0611372816044348788 0.24877724731795275437 0.33900269205206773337 0.45249456813934502142 0.8636648814780018002 0.16540213889461255481;-1.4037718201345332769 -0.62400631388548521983 -0.14167161502483874291 0.55935576357648186807 2.2951370038836533816 1.9740817436135413843 -0.31904441591759730157 1.420020585957800785 1.2180913377557383015 1.2570377709421378665 0.028262520086139563541;-0.047583257816493557124 0.47129662959277235368 -0.39905727201225527079 -0.12139493967429490495 -0.18940741563612548126 -0.30918083526914946768 -0.26124975593120136619 0.57310501105993261195 -0.034995742719822788003 -0.32870025037462574646 -0.070084335623292220996;0.14523655982038535806 -0.29823266862755409834 -0.17933170003241002965 0.5954673530374255952 -0.63282198967231917397 -0.28120484834601972013 1.0247670735722700375 -0.79313041455500854493 -0.97102800491242791114 -1.4025919324397930765 -0.022913163146975959461;-1.3313130568713467117 -0.13109414436423608152 0.13649216998227745035 1.7551332963260792841 -0.36423928369227198676 -0.26684744823312050999 0.48466531313586519447 0.13043666339128648368 0.9708787182195792731 -0.27825945247858385745 0.13637848760826906669;2.3026110564206945241 0.95659301695908127705 1.1453105357444515189 -1.2401268175993112042 0.097168670621231051365 -0.38872181851210763082 -0.89468384840225290144 0.30698612234787736597 0.57731482577862813788 -1.5397128065637615268 -1.6066715828784110531;1.1273667667395421699 -1.2310211505514607744 -0.65213768870163812963 0.044907853115058696258 -0.23072420721047925962 0.41289443489254712416 -1.6621670996254440666 1.3118828861659554974 -0.73645650794357697677 0.21258665491841197137 -0.074175182771702083406;0.68533829675135082837 -0.59612884923870723686 0.73203069385409480496 -0.23875859328484849708 -0.36879897513765247385 2.7126885236864639595 -2.3326721174458739938 0.93023197271506097294 1.2134822389290276234 1.5853995990422062867 -0.048081522055589943909;0.50755219240342741571 0.12388979987624310075 -0.55210471189023191396 -0.33846784051921025016 0.42321351986798949607 -1.1645026042723254367 -0.083241719602801272915 -0.017388403472440118469 0.87905032552870254747 0.65020727054649762877 -0.36167899352757532094;0.86103736982912248976 -0.0082196303440753206576 -0.95587884672501755023 0.041168936492730824617 2.2890294509289774716 -1.32132697113497799 0.41162637184980988003 -1.152127793141723533 -0.37315294667489667946 -0.51783137129761980244 0.011233343066061092161;-0.037328651994995985797 0.61500540979397966268 -0.42661037246241773069 0.020873638501193971656 -0.67440883968213360955 1.5533107481526893245 -0.27142003862090258171 0.30554215988690841543 -0.44445184599155684868 -0.94875861339939981942 0.0023168816059130612796;-1.2631351131230952323 0.50691080202150839984 -2.04185532721048002 -0.80177273050612030136 -1.0824194659116812556 1.6458928116575259892 -0.66596521398224794996 -0.84245982143853326285 -1.1031412972264973416 0.39788584199929744045 1.4747115834096484743;-0.67181535324779595442 -0.6827046864561794326 0.4020420045854736224 0.34615836415378642421 0.42790671189638251892 7.8445915377593458118 0.33490918803754765598 0.60982282402819276701 1.0638831951462575098 0.8224319341247722237 -0.067395288995403479504;-1.2631659106680193094 -0.49902876781415345109 1.9090876206750342359 0.19408170255581913555 2.565770738563476705 1.2803162242166477025 1.8059587285383438271 -0.17624024927377865413 -1.1503827816968341669 -0.16026090038747101141 -0.14124075379593853397;2.9913749089133894188 -0.32214301633809644398 0.57802673978537577604 1.9803547795357567818 3.1355828477977047974 -0.86181989592047947291 1.759374292987134325 -3.3740985301431636323 -0.71898478281111521948 -1.3596297942831292449 0.20386930247794357585;0.18360515712745009709 0.52046709053440431969 -1.7686088500811483204 1.1288843099097682909 -0.23622004915246730405 -0.68369578490993410114 -0.96488252728623458143 -1.3398063608224430876 0.25217453048428201123 0.9081064452692647615 -0.84684036895612646578;0.19529046792604318195 -0.41252389658292998309 1.0338085555461375975 -0.28231767640003629927 -0.91576992537637946779 1.8425010124079337359 -0.49029971927183985114 0.33797678755680232721 0.062838202061542697274 0.19300236798922504322 0.28335414350960580476;-0.084191779335343497337 -0.58456989197146669301 -0.58499612528394540067 0.42801127000764649377 0.25324159323881129113 5.6905697610464267555 -0.22760832063842373341 0.1038774050082657413 0.1524668509200456934 -1.1964343138134259092 -0.080784608028971902072;-0.019445312241117018032 0.36548806982603282423 -0.692560886114765073 -0.52005085720868027277 1.2614728972259698914 -0.60799135562763007012 -0.64263788436995161746 0.49146844109713327953 -2.1101827176672576236 0.88389255727496418569 0.17848047263149680042;-0.66499769289526988736 -0.21627926832336996643 0.43604393810281871779 -0.027690601180532934539 -1.1563327446092181994 -0.38836225175879252047 0.82243208799558464861 0.25008718871011792473 -1.1855296139010689238 -0.1388124382252938771 -0.059219818981524709189;0.067802427642390666884 -0.41769864817728913353 0.94874770156972665358 -0.33169640458614640943 -0.87905561513139052199 0.63313490238394398713 -0.31812356930666918498 -0.09016465007220962613 0.33753073330009519815 0.061007134423445325 0.1219827240831819759;0.81892361033028249206 -1.1975262456742887807 -0.39190263630673527473 0.48955827695642023523 -0.9625147163114453619 0.95220214179472895122 -0.027201909749166700708 0.19076691332095219167 0.28366973941266609982 -0.87162562998579384832 -0.16675513182951587354;-0.60388803397601609202 -0.86303315868594099314 -1.6448942973152904656 0.72791035213601507081 2.1639748559634015557 2.2925545483491576171 1.2578729925489762209 0.60026629098639183724 0.24264545614056562406 0.41708467440292429362 -0.20878493483492510663;-1.0912951928654026634 0.10226421076906296037 0.31304535828145402254 -0.94337290721219535516 -2.1808462220312758717 -1.0482487402575608737 0.60449232975968758552 0.61916158169260970823 -0.6956260663903941488 -1.2551822918768538173 -0.0053096953056879251862;0.57565986063273688611 -0.82113607843407265818 1.535641816336324128 0.22569415286546740118 -0.42856080698676946028 2.3734364836513224262 0.76432819285887643179 -0.82320471185158961003 -1.1998756152907679162 -0.70860462485480391059 0.053116527467722690625;0.90026754622907523284 -0.9395214218912736337 -0.77029694134370108038 0.32157514925688351903 0.81141686570658366762 1.8187432743377458522 -0.59871044721012411927 1.6530682088034200916 -1.0149731952979210714 0.90965048689626559764 0.08358431541787399166;0.038595085521291483399 -0.67095006092519327012 -0.52651195510549486656 -0.21044198671937516809 0.95881807166000432296 -4.0990347629507928318 -1.781062387188089513 1.2963574463620739508 0.21987840119938739658 1.1064131754300470245 2.6971260268028589557;0.20797923467278939258 0.68155088459830059922 1.5232916646923115866 0.62536036300232888951 -1.1789320254576927116 1.8174362793949334627 -0.40405026196620491552 0.13345054503350306518 -1.0999885349433373705 -0.51219176618343909002 0.092953376451753610965;-0.36838521218546171898 -0.41374155381107935447 -1.0952021512413776527 -0.38890586068778904005 0.89732547175565113839 0.67457821056003741678 0.15201320881435281818 -1.5289121513223034032 0.76931531394586183392 2.335844693546174522 -0.24417014894968291916;-1.040662394679838787 -0.37685748136494223726 -0.28271826470442873447 2.3882500639856778513 0.55733262405462868916 -2.2101417555834448336 0.60315999558459409968 1.5665917221976943807 0.31573686192253813676 -2.4742562662634157711 0.19952587941435334651;-0.58336941003989351007 -0.096843652351857212324 0.78301506059805137117 0.22292903256051371796 -0.34383461986207619621 1.2972458865567233488 0.28780399920093607813 -0.27974789053940118944 -0.29824826158283174182 -0.61959178138461268315 -0.11233998431733489831;0.28502179334937260968 -0.27893116766647280125 0.13761884353029801842 -1.6932122347388049999 0.71862211701900668981 0.10286203448563867313 -0.23431143935606796314 -0.5894660201264242394 1.0067823244406872707 1.4107336480884833385 0.019286401011508646358;-0.066068613181488475283 0.41613449323449386297 -0.87662433336078404711 0.44545523077839810355 0.87143650403015660011 0.10324660908310191731 0.38956195480569327794 0.24428482374223023377 -0.48131977948979470794 -0.042603840206495241505 -0.054093567314659203593;-0.36031843768129812045 -0.6189314340803641068 0.68124882463931335508 0.11728672937784780095 -1.417878513651315231 0.98861051884578698967 0.92352461708629152159 -0.53377821136653236245 -1.3842433248427929993 -0.46783427142334949034 0.1170196532256163463;0.22962981058494968956 -0.022061567309703610656 -0.84683157894056215742 -0.13216755588970524604 -0.6004495962156708444 1.9563714373981315742 0.29034777041906734141 -0.15857692408659332384 0.10466393938958562515 0.9843805495931710059 0.075216409242920764799;-1.7194983930058458377 2.8952949296632115583 1.011472780414414574 -0.67737134739519666571 -0.3574353088466261652 -0.71678912324108601251 -0.32531342201753982168 0.36347817849109809174 -0.47937767609497278221 0.99117520097896893994 0.36305231059685988404;-0.55912459008419401751 0.4654680627375714641 0.36244703758975993502 -0.77255863436637561836 -0.39448654815912681526 -1.0392860210130525633 -0.79194430788212288874 -0.17449684773569984486 -0.78658068410680292981 0.027176889555836400425 0.073429051793523450464;-0.040918596713789494312 0.38128815151274497719 -0.69731019421131290592 -0.5452410746927895957 1.4201798883590426303 -0.26285352425948710353 -0.64629179378269885348 0.59237334456030410479 -2.0942346369148880925 0.95815050190466988234 0.16882418870620310991;0.81575327434868349918 0.14079685667173724717 1.1621784594851138905 -0.42221050769993317964 0.37417723158517168791 -2.3383566060995781832 -0.27762408535444682567 0.33549425299860108352 -1.233789203637021048 -0.90349806252434838871 -0.29397384693158751245;0.36563757945537328498 0.55392770047891959351 -0.89696979554451705674 -0.25975365794512583761 -0.17105548527456571062 -2.6187728277782316155 -1.4381135161324962723 0.41487217113101199084 -0.55699887153561189468 -0.94940245275135837222 -0.22046772120592192379;-0.28207350847857698417 1.1850524676553788606 0.02250113800317002366 -1.6205845726697676312 -0.43273490109458645492 -1.5513134551341081213 0.26774798929950321957 0.17518426689069016566 -1.3321660611785184347 -0.31641435272456902572 -0.071483082007166867666;-0.50843849122199635815 -0.68803725426554707134 -1.3147510869420229174 0.2429758223582223764 0.32337013833588712508 0.28986599761102593842 -0.30544577804620509642 0.064334128612778873624 0.50429050570763511718 -0.0040253018647358161652 -0.60574072193759265215;-0.44973081988871438375 0.4266494644197001973 -0.2228305812055443591 0.93532441890332007617 -1.5040274717146553396 -1.1853251816259613438 0.063269598330981377532 0.15654506954188754375 -0.041068716936424838615 -0.58869624258708419529 -0.0014935400827909776477;0.77912955234114411596 0.12086512889679315585 -0.18062265113759420898 -0.41398489679591388146 2.0077179979364858653 0.35320686530870004649 -0.53765638601249743367 0.596684871932645855 0.77490146138815874099 0.80257934748569859096 0.10559221730354596824;1.8205140114990236988 1.5530954067590674317 0.95080581760196369867 0.30480433441881266132 -0.41761238855294224859 -1.3811617085345426759 -0.22981365234505515827 -0.49420189694842275863 0.37845237779616447416 0.13748958207062317305 2.7497472261713111763;0.65988422242899502645 -1.6055847107105665206 -1.5143265961658969321 -0.27857850891986063457 -2.0834169723946449615 -0.77917690820054519296 -1.2948369458000428267 0.65722001599609169986 -0.3952784267734754664 -1.4409572157503289791 -0.083206175020652264895;0.44136240916154417802 0.47561341032275677998 0.13428209046486860867 -0.6754757598381232464 0.34684963194973938982 -1.7739607738699105788 1.0311238410027212531 -1.3269068306474567365 1.23886198256224489 1.0510405991910169998 0.16955294783503863099;0.15076186223267229458 0.25462779850354250177 -0.41873623851004027063 0.040080042072032466549 -0.37788945639004251076 1.6245241419848666098 -1.1348699622840177081 0.27677013717471965482 -0.44024188177602785466 -0.4977984829688643087 -0.059194299475997774751;0.46125934023935244443 0.63364100092615749382 -0.32403510472793578545 0.0072269386329592861379 0.74603959432267452634 -1.0785717721086331977 1.510104243579603267 -0.7813869684281549155 0.096356601962597876465 -0.027146968687784253649 -0.04546943918015595304;-0.27784620023866440919 0.20479795071058878864 0.63282537352420287213 1.2491039491696449559 1.5802586896773462843 1.1508000161300320219 -0.72666964171581560628 0.53658845715539116306 -0.024046754928663243572 -2.5962654608212241136 -0.11622708943170297069;0.1463629499880125806 0.52942157225110519914 -0.95984670177685860182 -0.2962130812757897691 -0.7700255094810837253 -1.1805668671895308552 -0.72138239050737684721 0.18160110066586410138 0.36636396325377823535 0.43730838305436170454 0.11192911244937335524;0.50578270494901511611 0.44052665906701338194 -0.27781305686385920906 -0.097494349910384817126 0.36135250676175884044 -0.030193978008436699045 0.80272990052335324584 -0.45121758231481640111 0.066636782165926625177 0.080240759953065718402 -0.057984270983405097888;0.66421105422982040789 -0.19222187692712019991 -1.060346911902446676 -0.69876845429470135773 0.29021330676848156038 -2.3030659204058587797 -0.23773553471221714473 -0.43497337219786497142 1.9485219720786106645 1.6145239684591916607 -0.82337074551573363745;-0.95753886385716469043 1.0486464576598064635 0.97073170743109127301 -0.41568184765648719114 -0.93088543594741879339 -0.039739810686891884062 0.46138725335171221209 -1.7040353839319595242 0.95017742876549649012 -1.1292165097408637386 -0.095374372136614968265;-1.1711126174723700544 0.090648569351683708217 -0.034467928040696461933 -0.031258570297277125938 1.5704621942048253569 1.8255853092724561026 -0.66571303563311912121 1.340165554789258362 0.37385580092962966692 1.5913020368331265431 -0.031912078425970949458;-1.3558656692696020585 -1.0546818369498300871 1.4965509242807419898 0.32984366085625083098 -1.0904520738832983451 0.32764308185164348064 1.155199470986943977 0.025891781715499492117 0.019760361901227228854 -1.0419675128158578659 2.7265861960978248213;-0.092669648245577426748 0.60102986005741287912 0.025057071053903909319 -0.27694444188212830049 -0.26131609976303343812 1.1918093279641992499 0.80180298866671528835 -1.2580026364851484288 0.92612085052825487974 0.86439210910705244206 -0.10441094873799131038;0.57966097968351337766 -0.48311920027774746256 0.52978951187050493665 -0.45853741760373223357 -0.55203566818160010321 1.4470073789378363749 -2.2898948926370166213 0.88800650063237929199 1.0592607061909151689 1.2988992428153305347 -0.082232118542809665152;0.89705896479197499982 0.42515037468094302175 -0.15944540176677290955 -0.033009287611429384557 1.1079557545378873051 -1.5970761477728558919 0.36208735719488238658 1.5002997805167999079 -1.0479911811408508804 -0.63858116566433220651 0.085496173242645218115;1.0281710591234194396 -0.17768576598105770281 -0.014681201625436358579 -1.5831190493833302568 -0.3618830704115387209 -0.731182287883130555 -0.015335269662652837447 -0.15405083694231608282 -0.93219484084984427508 0.54869661923328916231 -0.056624507750216782065;-0.02430420133833278637 0.051392645975667894387 0.016419106384299598372 0.0048356950479598315162 -0.396532054124546951 0.86447441128674062938 0.27544409678342429704 -0.43994030558628310912 0.07424816932241434797 -0.21065452837139125863 -0.41661089040199184019;-0.27794754881809413671 0.25903450665639082828 -0.11526178275969833908 1.6217930477856159488 -0.76680979351432121405 -0.98725383886362194641 0.14229386141480235284 0.57941701660971967058 -0.94823013851921733597 -1.4297141027378834632 -0.016560568957775162469;0.42340029820273994421 0.28395023973029126507 1.1063891784515729189 0.3402450587125688819 0.19847349845123105072 2.6381910712754117476 0.87178281784095756901 -0.7505627615736510938 -0.59370857547126054676 -0.95805070925166624374 -0.078833239393060750011;-0.19246540768378442299 -0.35627244623572656979 0.52124901479744667476 -0.5730739349338291877 -0.60038018753132860184 -2.2180897630266493969 -1.3715775849063043257 -0.70596362951213809112 -0.30439422595224013834 -0.2498497672784755208 -0.42105759575008611106;0.64106386568013307148 -0.054488347920583934947 1.4654593863266867082 0.17185641104804122437 -1.4828446792583904745 2.1345736193162685446 0.02926847536785218834 -0.57455970542711409799 0.90584480941061862325 1.1807459610045152321 -0.71102769975967827776;-1.0298492304344686321 0.017961699892803911771 0.27271493853417932973 0.45408708241729073274 -1.7112826675586545466 0.41652325878556961669 0.36335550967443935866 1.2265948356479869918 0.60404054880511093284 -0.16698515861084256562 -0.059539954483457398215;-0.7536831960474466019 0.609840652500244218 -0.99920128367809979419 -0.58992629906589244548 -0.81364609110083263577 -2.6439173444698775839 -1.2342536214896411284 -1.1551172146407890917 0.9514638363358201012 1.3914466959679172575 -0.18155756207097376032;0.4936841532931852683 0.17054921809687698109 0.52952259344981811306 0.46066487547861378893 -0.79459993554525876203 -1.8213877857600360155 -0.21332646415165784637 0.56119812515054556812 -0.62077129613458414958 -1.3177510738814692814 0.019983965305488019665;-0.20692735963286321144 0.60529632319617787672 0.037434093553340853922 -0.18472347056106622198 0.3476423021173374317 1.3309519139338170657 1.2974125190020782128 -0.76250969635373455624 0.80039895877625377718 1.3920947414539168729 -0.089819091969804240594;-0.1275038728131100696 -0.79123899065442127032 -0.03045765594382818589 0.50951663546800607385 0.083343040238553725563 3.5753336184475004167 -0.38839821788445577644 1.3684738987301436897 -1.3581697671517405368 -0.40793908184859511978 -0.0074437705080790074127;2.3126154050258165285 -0.046948766149088702604 0.039000524539291300807 0.71911295478452108565 -2.4649702064394714007 -0.90247605967584010322 -0.1996672769109434642 -0.9499460994069087727 1.8315741681417920805 -2.1963047286805084113 -0.030888435663577323842;0.14493525589953423771 0.072362624963963936842 -0.073349928070487416254 -0.070302467255879894092 -0.53825208706065508224 1.487621443064705451 0.20613440734561069845 -0.67979459073792336543 0.26781075525395975356 -0.098652385133938161332 -0.39564693423193680877;0.10375447557591510606 -0.65397876716376546202 -0.50909285651376268156 0.053645388849478274629 -1.3658308909172989232 1.0654375719742774642 -0.61838360526872038214 -0.61603984430167957331 0.025678096223466981979 -1.7245183302141016135 -0.15195264666389826647;-0.13833050365072413479 -0.79955089377013921492 0.14750465765372214322 -0.58416760760723529522 -1.46173866268829733 -1.7413550778204787139 1.1639526335652286004 0.019187570748815434285 -0.98809973165655484717 -0.23140006074045471607 -1.2511358665008134317;-0.099240909557914980255 -0.27466909479663986771 -0.51569770582486940125 -0.43764046417096463815 0.020300815185437248722 -0.32944259776328171929 -1.0774166815999079994 -0.15421814964210386889 0.96867089398381767129 1.0812524592275263302 -0.22275372170387339188;-1.3661889797623902876 0.03060769299092820292 0.2734546447078629039 0.037755615901127609346 -2.0520565856359449519 0.28960872473874321731 1.5613983661877202103 0.4632648263296613167 -0.89691780251852060157 -0.78760186381314678528 -0.083643253441622739119;0.15565845870370101367 -0.20222704441664005048 0.40879747360202844941 -1.2021359236367721302 1.2728373299726538637 0.28254512904976025744 0.29763821530738637788 -0.35747819333521790863 0.77134147306478373363 0.25500267400920306748 0.17732587920591313946;-1.7615146149747638038 0.17929959159760008869 -0.4289268938506810569 0.56109046267204665259 0.44446787567078543946 0.12271267938506978668 0.18257354295792102561 0.33677352855309478086 0.10922255049865521592 -0.50552981268836338913 -0.014044311065627233109;-0.94883990518077931942 0.9227238874168911531 -2.2799641467206241963 -1.1248926827521139593 3.2094505769478383073 5.6592853957784461372 -1.4794715068619821441 0.8513204395604614394 0.54819814560163804273 -1.8739997692257792661 0.0092038739726410020298;-0.39450764823432477035 -0.66163058896060611414 -0.79140495529212162573 -0.1289208861323605515 -0.63240468769668845006 1.5597338829088556178 1.1452598836028229368 -0.34322484530815111636 0.54767366551048346501 -0.58572199080622844303 0.029043450585821528609;-0.36392672754326954587 1.0310729094502402159 0.36446233504917446844 -1.8361745794037034329 -2.466059638684141575 0.31119227328935916699 1.5431022994106438073 0.79151696914709213093 -0.72903287277814310396 -0.31534116325532424163 -0.062566242660461152125;1.6028699461487325717 1.3213383272498062659 0.74190105073223566734 0.23458883630750240745 -0.49791586532212539495 0.35149038435626833721 -0.31681836875111946128 -0.21586341492374924722 0.29854456323507705395 0.068109162833580053076 2.4977454680367237039;-1.2991391729098644703 0.58529023308801619851 -0.76171601155784529613 0.75397026106290054859 1.7980197658041860986 -0.64330263119767416846 -0.14707456953866809846 -0.77311957402495756764 1.7967570374668859756 -0.064522274764208867315 -1.1480933657966982953;0.30501631790269906341 -0.59448255363491919745 0.3721625656640852875 -0.44090692971807904366 0.7422904155465033238 -2.8933150385030077523 0.32999926403312979106 -0.4299030334754356808 0.59372925688160338442 1.0090157434554334337 -0.012310654541836513892;-0.21293003669791155108 0.012726997630551597357 0.86401005507847039588 0.071783064617305450406 0.44792423320647217766 -2.0453380853836549136 -0.31596222360472914215 0.1241563880290904448 -0.11668156774755965299 -0.89786311376501848347 -0.080131519295434092132;0.23998587691624215235 -0.23118334805200688176 0.10907851647739842671 0.011178688623854996301 0.27728060725162179123 -0.89960030871267282482 0.45161528352867780223 -0.26185119952543772781 -0.42164006722849273201 -0.34452555302928067338 -2.7312541518439972243;-0.041256215011502596346 1.7293967127929348315 0.15381526824662744568 -0.54486102136932090811 -0.48057193032647665953 0.099237379164281200317 -1.4448118197464638879 -0.51882793038984509337 1.2900502100626081159 -0.85196407690829289994 0.081241082838205358474;-0.37557666529926375665 -0.1899569038880097871 0.52951939298187788996 0.14251153761666937592 -0.49177720560403859196 0.18712725156751311428 0.15803504263768186622 -0.051751562856703473003 -0.29058538640965586586 -0.52942834865133459044 -0.10994897744680122431;-0.67173536026123359388 0.18482150968544036607 0.063464370680867424057 0.189803977648772354 -0.33581388231288822332 0.71178804734852252345 0.5401313641376808139 -0.084488920975929901469 -0.039516223126088975692 -0.3851041969366508777 0.014407229375487683176;-0.66085441721088733491 0.16592717817388355495 0.085528652760120421616 0.16338903774360602483 -0.98344066950380237824 1.9864238880455693526 -0.71653798992821238212 1.3219209283069930372 -0.41416698151833408748 2.5639627296068896456 -0.012462644101218478196;1.3826206556897733257 -1.2213198934599671652 -0.55422977990674238136 0.11368832050791351229 -0.49171662126808574067 -4.1777337468055826264 -0.17282344516188341554 -0.20661952707113595551 -0.76060441445380244652 0.47515984246528819579 0.10913760057937975378;0.9553815078741115796 -0.11795373188363260375 -0.37505142037072164429 -0.013504263856104014793 0.86577565677334455962 0.23607890197430556056 0.011639534884364172163 0.40530203272871734299 0.31166310496248833539 0.79806999166296033188 -0.19996136030197650402;0.67350023481083243215 -0.68246882322599489168 0.47452530100013590175 -0.11672411227492673902 -0.76930718276494103325 -1.2250377843391986321 -0.087330586150725295069 -0.15156677105580046439 0.20129856709773996659 1.0121665979500873433 -0.038822248355303304312;0.6517469278767338281 0.39788268200614262948 -0.6849000654046398795 0.89260213977588209744 0.48368602817944372774 -1.6972117095009797705 0.31888047554694881613 1.3083575662852189314 0.039425452039419627004 -0.77234093097464329158 0.11166130118847937547;0.68581103250767116997 0.2051406932218977075 0.24419661962172495295 0.41250429649292108536 -0.1637674707388780404 1.6052926301899175243 0.57790838694866419889 0.10643133723659647938 -0.98389345416470763706 -0.46175506702200513898 -0.035557016063008407836;-1.033678434367334642 -0.043445366702295762362 -0.19313938950884321222 0.13297830848196251496 0.64547898024658745264 3.1477664990084375241 -0.29212894542642359186 0.73591401974642622896 -0.21457307740656189621 0.94697635105286259716 -0.10630376334271363081;1.1693226165482266676 -0.15487272516730010707 0.86050793585856510948 -0.089333969597016435471 0.2303978419212169837 -0.081367792009546621723 -1.8423949920051514439 0.63258463888134153219 0.88941711262177147734 0.36539118969670764114 -0.061276256641174385587;0.9322146524267909129 -0.48451329796601444455 -0.37294248393238338402 -0.32987181997822118129 -0.43131252232837608007 -1.3966184449295424574 -1.259307939727664083 0.085754479776869382834 0.28320833836469561096 0.52372887952693636393 0.01296624636834214396;-0.65014300999733831699 0.64103136977629793236 -0.84497326053565058324 0.1032291469758186836 0.34413305444453606841 -3.6718352888129008882 2.1805392644638756927 -0.88450820691491249814 -1.0329703832727292756 -1.5328966034444135857 -0.001158399842901941014;0.015579646700718785893 0.72251299618865327812 -0.20493566868131435355 0.53176991517802318921 0.16319135348007293707 0.14408007438793141164 1.4891623777879734458 0.45976717547247059059 -1.711469371018311536 -0.47926668484692630523 0.13798656642837189845;0.96540409077288646955 0.23930595580116653665 0.33124033828959736914 0.3579422516979919866 -0.92294403536650138076 -0.56028778237713727783 -0.35838436968482872969 -0.22338992341722108126 0.66189869279169022409 0.57066013205972432321 2.319578732952244593;0.31564851921090730791 -0.4793052422745954777 0.3466636588052128265 -0.84096841880716599604 -0.072605193115729591002 -1.4751753014878961068 -0.016647581659814125049 -1.9742520714231148737 0.97380862877533569399 1.4853676136026887633 0.063490340262708624963;0.89384109214586615622 -0.45066786731688052159 -0.40732324956536408722 -0.34630440564531550507 -0.76429967520934827263 -1.2926365259969927468 -1.2047287329662592636 -0.028563986478985732564 0.3031355025511906498 0.38268105091128390427 0.017671146699510500294;0.49914304437799150715 0.73176094302908600842 1.518877435434260903 1.6234647078113904062 0.24480623433927597987 4.7566027689161325398 3.0885936207964430622 1.2486981719041654326 -1.8257882858130387582 -2.264306902909372532 0.5074109294303120743;-0.59190318982500689238 1.0594668911284164103 -0.43540342299756429334 0.24185623370147343869 -1.686616672507746495 1.2822112712457309769 0.59349063460582796026 -0.21972254698754517532 0.99166147752442768137 0.5680296683290870785 -0.025157351866801801882;0.88659597860509986589 0.2586476028609586697 -0.072569828664448055022 -0.22629632129416335506 0.20817794718735799231 3.4722125888890857937 1.3285862356554387631 -1.1455487378584781055 0.12108164032295930246 0.44146700162035412696 -0.16937485950919231592;0.27491630170248382292 -0.23412680656140152924 0.4335204139067238005 0.71450988649378321949 0.5537749534607996349 1.5553473548394332049 1.1324011776054505596 0.70267317934089823517 -0.70668251459581254981 -0.5999396638601869336 0.13128528626277724545;-1.2811763193761782631 1.1117638207251792082 0.5399602481624489192 -0.54481114643436912015 -0.84915073423196696378 0.56424722400481341911 1.2678350693450188835 0.15083316732486753975 -1.8439279051459418479 -0.94186511594337174458 0.17993317419048990291;-1.2471429453180313818 -1.2155871678270127045 0.3653821410621505561 -0.70152194530736922129 -0.79182786326231824336 -0.41709782245209769957 -2.2411452096570325665 -0.26701056450180832291 0.99199251205395311271 -0.13445337070728480278 -0.18455586437185367288;-0.072497252936177800087 -0.52105911255256054382 -1.2439339102549460403 -0.0021391331123314693066 1.6039821361210062634 1.0802092795279534254 1.056105394909875983 0.48159813124325923095 -2.1091768093794049932 0.049113435092525394021 0.12491085100942077302;1.4974527988226764563 0.071589216289371274127 0.12079659575100475111 0.33032637045518947749 0.90977132278785832753 -1.1798902075527204492 0.96991727456795451268 0.45230094497795247932 -0.24289129314546634153 -0.31076416013374941194 0.052787054361092475285;1.0194468522391035847 0.0048711045028987220301 -0.056068828533438398731 0.19519401826896087826 1.4395923899275868685 -1.751733735801500158 -0.23778631327031055087 0.16846751974425483445 -0.054565719365291275034 0.9907042070917632115 0.010325259299978628569;-1.2856539895190526313 2.3408646595087070352 0.68025362173266645804 1.027421634172142495 0.60077621290791793918 -1.1385701584224861005 1.545128240325574831 0.68188211295927447786 1.0666816892895627511 -1.5061656285539199995 -0.36049417460340255071;-3.5314399678044781083 0.34055548037171007314 0.81353210492721694802 -0.41326724475241860546 0.82546704851510555034 -1.6407942589461295135 0.60832474703477235067 -0.768390957442471767 -3.7825245949542991575 -2.1632488774416822608 0.27055546862102453076;-0.7385067194869410212 0.364091908554683652 0.20360976748001236025 -0.33571629674067299254 0.96008487887719851095 -1.2950860224868967485 -0.74872747648157189637 0.78074550427859779056 0.72390103880976508499 1.3016210397566647661 -0.047061774826344437983;-0.13829827413705075845 -0.069848189446124045454 0.45633511086840500282 0.066463981158216889344 0.098743902258867657928 0.46290246081300923109 -0.46345689907572601429 -0.68403137985165562984 -0.70802053336882420087 1.1919420137233482926 1.1452159405235189382;0.13124436017991641945 -0.38129674852644424021 0.22634432184023609014 0.016188799997095014438 0.077374909831146712613 -1.0665092145016108471 0.36890136064888745526 -0.38764379151529892997 0.23096689930196848128 0.23327711874177925466 -0.95366504082844349988;2.1860175150546581335 -0.034682736524635340847 0.036113942302829583897 0.84943764519964626292 -2.2262894069958818477 -0.43762015656180847101 0.09307968691281955087 -0.84151233193155983159 1.3639146872970400182 -2.2176643017143939929 -0.019810439774343643893;-0.69326107355869936999 -0.39941751258742191899 -0.24450077859865285146 0.50583083292152752897 -0.21096523294943356208 -0.86287865878638836392 -0.77816056711963876857 0.99444022047981217582 -0.87178345981036575729 -0.57955697668950467705 -0.13878863199326957334;-0.27846619625011931332 0.43680499426641467009 1.1296531158032099285 0.044958254572116433667 -0.29122865097372746535 0.95339215766733254043 -0.70060616246297924281 0.78435208619576801681 -0.62701444778009596259 -0.15803125304857204569 0.36028441518654996667;-3.3863854135331714623 -0.50709883405695743708 0.17401663829086769231 3.2164809495695427799 0.62919373276638734804 -0.15380554665483570087 -1.3764445476780782229 -0.91637530022618518544 -2.8531003757701953738 -1.8270197533888743457 -0.21568415579045299713;0.76882423914906761198 -0.015188057207016218003 1.0956006076302688967 0.37567153595743707495 -0.85777558266356479511 -2.1747654272600600578 0.69130413476399377171 -0.016477234420214953436 -2.1925938715029555937 -0.20287199851687684471 -0.13414829923999391226;0.76397108810188596451 0.049194278853531149542 0.51728779802884161665 0.092833854024887196843 0.071787328958973189996 2.5785992007019484795 1.0203011884982255975 -0.82495623688413510788 -0.37226198250289366243 -0.19691610770746598158 -0.063197796700361033584];

% Layer 2
b2 = -0.52151052815723719647;
LW2_1 = [-0.078243434489302460255 0.010756062811666281323 0.62340268688166100564 0.31086729251460765155 0.16209718930597666331 0.23240337543751715677 0.22430454495374624324 0.84088045192694826913 -0.26102250316860409196 0.046960270703579207185 -0.0048162173103385146761 -0.084547819438247517887 -1.3845182051411466517 2.7926443467356172334 -0.15906602734491562257 -1.0926737260142036501 0.013017903347213080276 -0.14220855188103517786 0.24052620634300250768 0.040150589790472319962 -0.0062165519908779906175 0.34358103552260893521 -0.13908796704792697474 0.33425887787525887518 -0.670283464132415574 -1.3085974035125995663 -0.10505018165974021327 0.033154733378952729039 0.11956062200971648291 -0.061669932795610941934 -0.19301899570033770326 0.033692437319188590916 0.94405710139789988933 -0.033304103931598452726 0.0069702243261742704433 0.47745873363957824775 -1.0735303748071818308 -0.99033534795599120759 0.74616640993516714087 -1.2153122945416336975 0.013111146008930558288 -0.090509165600439422938 -0.33104610934143335887 -0.02707685756229419316 -0.073426255749978630583 0.023830242160432682508 0.023330671841937163091 0.24706486537025224015 -0.37787971982007678706 -0.030507074805150233288 0.017913153509788906637 0.36092648417796235893 -0.25666109208389586982 -0.36145835006077470242 0.10525753657694805754 -0.24520512131114122201 1.2362531457182306394 -0.20901552313258422999 -0.13604413153297115202 0.25720473689971040665 0.0043578982411472599531 0.6476684405307046033 0.83502986659727729268 -0.032878169683407378054 -0.035119808777324068583 -1.5350500550050325543 -1.2497818891467231683 0.36904788671238714093 0.038553529755128185252 -0.012266731821470488323 0.044670739578822331317 -0.034352388254429599979 0.23688813493540855637 -0.41220892329855479685 0.34445971956690363269 -0.43569229993408697954 0.91570121989191111123 0.23241042147941737284 -0.0055466611393759999299 0.31289184816210047213 0.27126417495986293593 -0.089208115052787279042 0.079430524658982676334 0.017480148439379134678 -0.29253128132722966415 -0.055881227046016321292 0.03927615963763967516 0.069653906765093018261 -0.65510789407093772407 -1.2139295815484552055 -0.037124668395227398976 0.088100274692957919465 0.94526294201034877229 -1.4561625962513249366 -0.040902895898860244794 0.076326434701692091878 -0.31354157749042055325 -0.18294371300324069329 0.048215606073006594956 1.1248028398303355768 0.33726217607812808419 -0.068723900618082062186 -0.75665296637846168881 -0.81290580145900270814 0.067337349537343840766 0.0079564608652163883867 0.082072865820534871006 0.73420015951158457135 -0.11477018042131566233 0.065392071638870868933 0.67631968745358084227 1.6992127939873900022 0.021287305372016090965 0.037192446947537441404 -0.10732191884380450075 0.089485111255061561275 -0.25551528923928357173 -0.052343195950010107387 0.010870917734537353591 -0.39413421398791853578 0.046682083620251703382 0.15563468194923013588 0.49973856863959731367 0.4473910613951285753 -0.11525780741329090529 0.013583204879204648086 -0.25939646018038636788 -1.3862673438191999153];

% Output 1
y1_step1.ymin = -1;
y1_step1.gain = 0.00101409593347531;
y1_step1.xoffset = 679;

% ===== SIMULATION ========

% Dimensions
Q = size(x1,2); % samples

% Input 1
xp1 = mapminmax_apply(x1,x1_step1);

% Layer 1
a1 = tansig_apply(repmat(b1,1,Q) + IW1_1*xp1);

% Layer 2
a2 = repmat(b2,1,Q) + LW2_1*a1;

% Output 1
y1 = mapminmax_reverse(a2,y1_step1);
end

% ===== MODULE FUNCTIONS ========

% Map Minimum and Maximum Input Processing Function
function y = mapminmax_apply(x,settings)
  y = bsxfun(@minus,x,settings.xoffset);
  y = bsxfun(@times,y,settings.gain);
  y = bsxfun(@plus,y,settings.ymin);
end

% Sigmoid Symmetric Transfer Function
function a = tansig_apply(n,~)
  a = 2 ./ (1 + exp(-2*n)) - 1;
end

% Map Minimum and Maximum Output Reverse-Processing Function
function x = mapminmax_reverse(y,settings)
  x = bsxfun(@minus,y,settings.ymin);
  x = bsxfun(@rdivide,x,settings.gain);
  x = bsxfun(@plus,x,settings.xoffset);
end
